-1.65296
0.420719
-0.262651
0.425699
-0.587711
0.10307
-0.238328
0.0674777
-0.0692276
0.161002
0.192213
0.112849
0.127947
-0.00638845
0.151108
0.17193
0.0918697
0.0614486
0.0818535
0.0361771
0.0475444
0.032467
0.0655576
0.112846
0.0917144
0.117442
-0.745454
-0.307756
0.1771
0.31851
-0.289562
0.415888
0.275975
0.0536606
0.0377393
-0.0502595
0.18559
0.0844861
0.11057
0.0419137
0.0822979
0.120345
0.0998205
0.0878217
0.0586591
0.0776236
0.0417945
0.0658942
0.111028
0.133955
0.0777846
0.133744
-0.737275
-0.228416
0.0855616
0.29118
-0.345289
0.342134
0.219574
0.0324662
0.0560678
-0.0344032
0.159081
0.0924422
0.112251
0.012813
0.0926682
0.136328
0.109777
0.0836923
0.0430232
0.0771183
0.0432732
0.0553099
0.100171
0.124973
0.0786263
0.122984
-2.75523
1.40545
-0.721226
-0.661262
-0.620949
0.161379
-0.668391
0.0813092
-0.222002
-0.0742093
0.0736796
0.135111
-0.00152968
-0.256564
-0.111815
-0.00967486
0.0493372
-0.156306
-0.0490368
-0.168875
-0.0578703
-0.0596335
-0.189164
-0.119013
-0.0410838
-0.129458
-1.5605
0.0553655
0.914076
0.615405
0.160534
0.108197
0.0871245
0.0148849
-0.179754
0.175477
0.0960688
0.0658183
-0.0127625
0.0321758
0.0988226
0.105757
0.0182438
0.0974769
0.156358
0.0288973
0.0132296
0.0211393
0.0916674
0.0940403
0.099579
0.103531
1.41277
2.14702
-1.45531
0.5164
-0.865948
0.00710379
-0.916825
-0.317977
-0.259641
-0.484416
-0.416074
-0.271087
-0.258192
-0.246719
-0.271535
-0.211758
-0.165083
-0.337976
-0.504587
-0.379191
-0.348971
-0.285543
-0.181597
-0.43718
-0.285041
-0.35479
-0.858267
-0.249399
0.193956
0.392245
-0.308243
0.373296
0.234959
0.0426246
0.0193312
-0.016481
0.19314
0.0730397
0.104326
0.0267054
0.0758735
0.11338
0.0910716
0.0858644
0.0670214
0.0710256
0.0260638
0.0581966
0.0981574
0.123876
0.0746915
0.131006
-1.00325
-0.147329
0.217713
0.403837
-0.363276
0.350587
0.173548
0.0289048
-0.00897191
0.0014676
0.186389
0.0953383
0.1201
0.0270626
0.0868082
0.149563
0.101747
0.0763275
0.0850364
0.0732621
0.0393766
0.0422225
0.108189
0.12602
0.0856284
0.129983
-1.24264
-0.0204388
0.395031
0.548165
-0.424305
0.386263
0.186107
-0.019856
-0.0267875
0.0486791
0.183922
0.0771232
0.118943
-0.00118591
0.0558913
0.180965
0.127108
0.0719534
0.113276
0.069305
0.0374281
0.046252
0.100174
0.128359
0.10993
0.145159
-1.16555
-0.0662357
0.316578
0.478102
-0.280219
0.251452
0.130553
0.0285641
-0.0362084
0.0529601
0.187533
0.127666
0.123164
0.0429609
0.0880007
0.166465
0.0965101
0.0854842
0.113907
0.0785489
0.0533149
0.0389886
0.118644
0.129743
0.0927879
0.137675
-2.31881
0.539883
0.590497
1.04856
-0.588637
0.277357
-0.321561
0.0751632
-0.325612
0.473854
0.130296
0.0748886
0.160807
0.0330813
0.127924
0.104665
0.0724401
0.159726
0.216455
0.0410307
0.070418
0.0700294
0.127839
0.156327
0.175411
0.186111
-1.99204
0.139441
0.027279
0.937739
-0.693278
0.318442
-0.0358499
0.05606
-0.0544549
0.147557
0.178799
0.0726385
0.149118
0.0633399
-0.0402044
0.0790631
0.0559608
0.0898659
0.191632
0.103363
0.057855
0.0243417
0.140224
0.115795
0.12247
0.155978
-2.5347
0.557757
0.509787
0.968025
-0.690241
0.21158
-0.364558
-0.0267614
-0.358952
0.360157
0.037756
0.011942
0.0710113
-0.0587933
0.0371856
0.0594863
0.0332408
0.0734567
0.152881
-0.0203782
0.000174174
-0.0193555
0.0571871
0.0814421
0.117588
0.110025
-3.1441
1.03515
0.280877
0.171921
-0.203292
0.137793
-0.549258
0.0687232
-0.383406
0.14552
-0.0476563
0.0347217
-0.132147
-0.129395
-0.0527552
-0.121895
-0.0985319
-0.0499899
0.069091
-0.151415
-0.118754
-0.0411244
-0.0921955
-0.076988
-0.0242619
-0.0863916
-2.44074
0.519683
0.399858
1.03225
-0.668331
0.22916
-0.323375
0.0303955
-0.292235
0.36909
0.119308
0.0523365
0.122654
0.0131664
0.0570221
0.0834526
0.0507708
0.107323
0.204256
0.0333516
0.0403773
0.0157189
0.108352
0.113735
0.140145
0.143886
-0.572119
1.2983
-0.127372
0.972507
-0.333645
-0.1434
-0.624761
-0.155437
-0.369474
0.0718206
-0.0946413
-0.103585
-0.155835
-0.0666719
-0.00772951
-0.0701463
-0.0996243
-0.0638685
-0.134268
-0.16145
-0.151972
-0.0944385
-0.00168903
-0.116033
-0.0701224
-0.122658
-2.43233
0.512334
0.379724
1.04343
-0.662467
0.227682
-0.319038
0.0385167
-0.281359
0.36914
0.12741
0.0595821
0.127555
0.0240574
0.0602072
0.0846246
0.0517789
0.112302
0.210297
0.0410812
0.0450509
0.0213924
0.115927
0.118366
0.142732
0.14785
-2.39149
0.590592
0.232221
0.984282
-0.87422
0.143341
-0.3019
-0.0537991
-0.21567
0.329401
0.0795085
0.0520736
0.155451
-0.0942202
-0.0262315
0.182892
0.128271
0.0704623
0.167957
0.0271871
0.0597921
-0.0242535
0.0768464
0.0865391
0.153349
0.15146
-2.28006
0.340399
0.105959
1.01371
-0.697406
0.24356
-0.197841
0.0571062
-0.148078
0.250065
0.166089
0.096292
0.147549
0.0724955
0.0173719
0.102281
0.0575317
0.0986288
0.218864
0.0932968
0.0630572
0.0233455
0.149227
0.127166
0.132763
0.160975
-0.512514
-0.254943
-0.633909
0.264938
0.360492
-0.369072
0.0760163
0.246024
0.257245
0.0814398
0.22236
0.145142
0.0469805
0.160448
0.096704
0.0584518
0.0597712
0.122511
0.106662
0.154585
0.123698
0.118789
0.124819
0.13857
0.0958982
0.0912858
0.150252
-0.572607
-0.308265
-0.0175713
0.664631
-0.212849
0.250558
0.323173
0.200791
0.0648402
0.234724
0.176534
0.115269
0.206976
0.137875
0.100403
0.0942055
0.184981
0.13942
0.165679
0.1945
0.120639
0.159781
0.178985
0.133432
0.141353
0.914143
-0.609726
-0.372958
-0.422972
0.595065
-0.229818
0.214827
0.234301
0.132514
0.0529821
0.17464
0.124001
0.080781
0.151595
0.160525
0.101499
0.136633
0.117113
0.0817378
0.146169
0.193199
0.098673
0.129271
0.141278
0.0971554
0.0951523
-2.4258
1.08962
-0.666242
-0.551296
0.271396
-0.488178
-0.649639
0.109354
-0.131554
-0.0402098
0.114032
0.0518254
-0.205466
-0.147803
-0.0712229
-0.0852325
-0.115384
-0.173745
-0.0110682
-0.194695
-0.113405
-0.0981706
-0.205371
-0.177015
-0.140916
-0.194914
0.949117
-0.703035
-0.345101
-0.507038
0.543404
-0.122919
0.243249
0.229072
0.0959729
-3.44515e-005
0.171242
0.13823
0.106896
0.178323
0.155326
0.104497
0.121642
0.113887
0.0839201
0.144142
0.19387
0.0868814
0.130048
0.148183
0.0934678
0.101862
2.52236
1.53133
-1.41017
0.211351
0.0811567
-0.334077
-0.633603
-0.174835
-0.0577936
-0.537462
-0.439934
-0.268994
-0.360995
-0.0773039
-0.26181
-0.282192
-0.231848
-0.34514
-0.44295
-0.322301
-0.288775
-0.245675
-0.182965
-0.401879
-0.292917
-0.375358
0.809072
-0.703495
-0.365776
-0.440096
0.546555
-0.129472
0.246309
0.239789
0.105979
-0.00579792
0.178612
0.143769
0.1071
0.183548
0.14291
0.101817
0.112456
0.117768
0.0915277
0.144445
0.187262
0.0853195
0.127911
0.151062
0.0944782
0.105514
0.777507
-0.600335
-0.379119
-0.359505
0.605634
-0.233282
0.221241
0.250556
0.153321
0.0482886
0.184618
0.130067
0.0809717
0.156555
0.158749
0.0998142
0.131121
0.123271
0.0853543
0.147673
0.195313
0.100045
0.135178
0.148289
0.100959
0.10188
1.57471
-0.780743
-0.201163
-0.95866
0.310195
-0.0627376
0.181842
-0.0258342
-0.0435299
-0.119674
-0.0177929
0.089116
0.0370175
0.0857985
0.118629
0.0348648
0.0602679
0.00706725
-0.0162326
0.0653267
0.099089
0.00773776
0.0225105
0.0494048
-0.000942716
0.00523851
0.820906
-0.557796
-0.396195
-0.373456
0.627273
-0.32028
0.186345
0.203983
0.153606
0.049899
0.154301
0.104893
0.0326582
0.1168
0.149978
0.079019
0.129654
0.0958475
0.0649481
0.127511
0.170586
0.0851562
0.111535
0.123535
0.0833238
0.0781146
-2.35122
0.531763
0.0616835
1.10753
-0.570623
-0.142622
-0.376092
0.0266725
-0.117342
0.418021
0.117092
0.0954563
0.058873
-0.00624801
0.0140375
0.101612
0.0598564
0.0984247
0.155368
0.0472342
0.0495355
0.0357267
0.105363
0.107269
0.121781
0.11556
-2.2142
0.458184
-0.110488
1.11816
-0.40312
-0.294294
-0.371509
0.0868707
-0.0459435
0.413317
0.122966
0.128298
0.0300263
0.0150716
0.0121641
0.0807888
0.0296182
0.100248
0.141182
0.0681984
0.0420844
0.0563851
0.118238
0.111131
0.095993
0.0893966
-2.9987
1.14179
-0.671499
-0.103041
-0.454496
-0.0289628
-0.621853
0.100971
-0.209808
0.0339077
0.110889
0.0480142
-0.0634009
-0.136657
-0.185392
-0.0577666
-0.0358786
-0.128594
0.0709513
-0.136355
-0.0715824
-0.0763758
-0.140576
-0.111236
-0.0306426
-0.092194
-2.38585
0.56651
0.00442237
1.12205
-0.381517
-0.369924
-0.451622
0.053022
-0.121347
0.443886
0.0639302
0.125443
-0.00984841
-0.0188224
0.0331098
0.084327
0.0204762
0.0798265
0.116956
0.0417433
0.0191705
0.0398711
0.0995589
0.101498
0.0790048
0.0598992
-1.9444
0.27854
-0.261371
1.05385
-0.302415
-0.254329
-0.232651
0.135585
0.05292
0.336038
0.174401
0.115918
0.0405028
0.0631486
-0.00580347
0.0579262
0.0235995
0.109075
0.156389
0.0993721
0.052413
0.0789226
0.133155
0.114414
0.0967289
0.099353
-2.00184
0.369551
-0.304218
1.00055
-0.426656
-0.0973973
-0.236079
0.143117
0.0340554
0.33688
0.241184
0.116541
0.0932209
0.0928136
0.0407728
0.117478
0.0670187
0.127435
0.20473
0.120898
0.0722349
0.0789452
0.140606
0.136436
0.130556
0.149188
1.12109
1.90667
-1.57852
0.730246
-0.71693
-0.122553
-0.828569
-0.209229
-0.114968
-0.400553
-0.369445
-0.26545
-0.274943
-0.154935
-0.288931
-0.241703
-0.183022
-0.309042
-0.429621
-0.315053
-0.312143
-0.231973
-0.137516
-0.383575
-0.24944
-0.316142
-2.38585
0.56651
0.00442237
1.12205
-0.381517
-0.369924
-0.451622
0.053022
-0.121347
0.443886
0.0639302
0.125443
-0.00984841
-0.0188224
0.0331098
0.084327
0.0204762
0.0798265
0.116956
0.0417433
0.0191705
0.0398711
0.0995589
0.101498
0.0790048
0.0598992
-2.33307
0.540233
0.113491
1.11317
-0.418938
-0.20242
-0.393723
0.0613382
-0.121802
0.443206
0.121662
0.111169
0.0296971
0.01755
0.0477433
0.0892762
0.0406956
0.102192
0.158629
0.0510595
0.0424403
0.0539744
0.114768
0.114798
0.10848
0.0992536
-2.13938
0.389869
-0.203086
1.07393
-0.291211
-0.379896
-0.327448
0.0874258
-0.00873533
0.366609
0.114763
0.121686
-0.000239709
0.0269135
-0.0125041
0.0686253
0.0156539
0.0853483
0.133552
0.072918
0.0359716
0.0503422
0.113712
0.094794
0.0800107
0.0676579
-2.06609
0.373773
-0.259895
1.09267
-0.26152
-0.396002
-0.298805
0.124937
0.03554
0.375867
0.12338
0.154327
0.0251857
0.0412369
-0.00301117
0.085196
0.0352349
0.106929
0.143283
0.0987758
0.0601866
0.0748293
0.138262
0.117854
0.0974035
0.0847124
-0.956772
-0.294043
0.85358
0.563396
0.371455
0.0344901
0.355581
0.00812036
0.00754839
0.0903205
0.0985942
0.0336566
-0.0328809
0.0631476
-0.00989375
0.0447263
0.026773
0.0700178
0.163588
0.081678
0.0336227
0.0589944
0.0961351
0.0816533
0.0695495
0.0788557
-0.38496
-0.511989
1.32871
0.416124
0.533248
0.267326
0.664643
-0.0197728
0.0683346
0.0415503
0.153336
0.0192752
0.0130411
0.056041
0.00223957
0.0862582
0.0896286
0.115849
0.170723
0.101367
0.0706405
0.084825
0.112425
0.108437
0.116588
0.138312
-0.461332
-0.562688
1.29756
0.406566
0.455895
0.343492
0.648589
-0.033148
0.0278287
-0.00506673
0.149767
-0.00813384
0.00556512
0.0497202
-0.0200288
0.0595406
0.0596176
0.0914967
0.15686
0.0795611
0.036361
0.0624275
0.0919518
0.0882948
0.0942553
0.127539
-2.35883
0.709841
0.678753
-0.329028
0.254662
0.197537
-0.111129
-0.0502556
-0.240248
-0.1128
0.0166826
0.00504202
-0.195322
-0.147511
-0.129302
-0.0326031
-0.0492499
-0.173878
0.0433615
-0.196979
-0.106571
-0.0809343
-0.143574
-0.114843
-0.06914
-0.101365
-0.486716
-0.481863
1.38522
0.451449
0.532088
0.253069
0.649449
-0.0442207
0.0479708
0.0495516
0.119383
0.00943624
-0.0111508
0.0382787
-0.00694785
0.0814932
0.0848104
0.106844
0.165499
0.0893443
0.0551349
0.0764112
0.101004
0.0994206
0.108578
0.126607
-0.375205
-0.562153
1.30112
0.386269
0.513081
0.311265
0.685932
-0.0305933
0.0602343
0.00347929
0.148888
0.0015222
0.00685754
0.0492365
-0.0158026
0.0768902
0.0822495
0.104646
0.159995
0.0892261
0.0535723
0.0733361
0.0964914
0.0996112
0.107669
0.136316
2.00402
1.75567
-0.733901
0.311227
-0.106972
-0.0918891
-0.587239
-0.348747
-0.289746
-0.52788
-0.348357
-0.335372
-0.363149
-0.171572
-0.302872
-0.281863
-0.224823
-0.343759
-0.433396
-0.378271
-0.345691
-0.271627
-0.223958
-0.44463
-0.304672
-0.387665
-0.366107
-0.606924
1.27918
0.365536
0.488184
0.367338
0.681667
-0.0160261
0.04394
-0.0203257
0.157389
-0.00110502
0.0150349
0.0587132
-0.0131642
0.0626862
0.0678372
0.0993198
0.157624
0.0840067
0.0454128
0.0683827
0.0962874
0.0984286
0.101247
0.137303
-0.349129
-0.600302
1.25813
0.356152
0.506044
0.342983
0.689216
-0.0175405
0.0569096
-0.018723
0.152558
0.00312247
0.0119979
0.0569126
-0.014682
0.0705837
0.0760941
0.102311
0.155815
0.0870942
0.0505374
0.0705478
0.0961986
0.102155
0.105365
0.137791
-0.582478
-0.426015
1.3427
0.501012
0.424704
0.27987
0.578834
-0.033695
0.014033
0.0717973
0.156404
-0.0059271
-2.97546e-005
0.0401931
0.00259458
0.0660543
0.0628534
0.0950281
0.167613
0.0872509
0.0383763
0.0757078
0.0981762
0.0923086
0.0912311
0.121503
-0.447903
-0.521483
1.26915
0.43489
0.476436
0.290899
0.634414
-0.0250284
0.0473903
0.0276454
0.153029
-0.00386934
0.00327175
0.0456699
-0.0172116
0.0618438
0.0680822
0.0971878
0.16161
0.0870523
0.0422555
0.0739828
0.09218
0.0935593
0.0981694
0.128347
3.25497
0.286104
0.658951
-0.944906
-0.0309691
0.253374
-0.0362651
-0.127142
0.166572
-0.153328
-0.620433
0.00539864
0.125649
0.252276
-0.111892
0.100185
-0.154578
-0.125708
-0.177776
-0.0776785
-0.0560527
-0.0768453
-0.0819051
-0.0960112
-0.126143
-0.107861
3.9829
1.11788
1.49529
-0.0207275
0.253928
0.39956
0.265552
0.00425644
0.0997304
0.0775972
-0.293552
-0.379707
-0.0910482
-0.124742
-0.0892881
-0.166125
-0.117409
-0.282394
-0.338819
-0.257101
-0.170596
-0.16582
-0.144533
-0.394461
-0.298371
-0.171944
3.86858
0.823932
1.44254
-0.512804
0.108821
0.162757
0.11446
-0.108239
0.210497
0.0718968
-0.405538
-0.299809
-0.0193463
-0.0474202
-0.0851321
-0.0866037
-0.195686
-0.276561
-0.343752
-0.231476
-0.160476
-0.183525
-0.199725
-0.216269
-0.268109
-0.262241
0.673211
1.73802
-0.13861
-1.52215
-0.217537
-0.0900945
-0.88702
-0.152831
0.148261
-0.207727
-0.527087
-0.0366479
-0.0992306
-0.0462698
-0.177382
-0.0394279
-0.194104
-0.378332
-0.236716
-0.267718
-0.16708
-0.129305
-0.286273
-0.296491
-0.260429
-0.327774
3.92468
0.800256
1.38465
-0.616252
0.0766573
0.138566
0.0663562
-0.133511
0.220931
0.0478832
-0.422987
-0.286195
-0.00613492
-0.0219448
-0.0857867
-0.0737715
-0.205572
-0.27906
-0.349759
-0.224726
-0.149396
-0.184101
-0.199037
-0.202054
-0.263486
-0.268229
4.04614
0.611182
0.348301
-1.00193
-0.0870878
0.0450661
-0.25526
-0.359765
0.0415986
-0.356611
-0.6153
-0.16629
-0.00839877
0.0973264
-0.169122
-0.0115374
-0.305157
-0.219343
-0.336712
-0.195321
-0.204667
-0.200282
-0.268756
-0.283864
-0.245214
-0.240175
4.09265
0.949471
1.40365
-0.476213
0.119419
0.201205
0.110622
-0.0680729
0.23577
0.0880021
-0.368903
-0.327455
-0.0166169
-0.0485505
-0.0637943
-0.0962522
-0.170748
-0.287924
-0.347392
-0.231465
-0.145644
-0.179976
-0.18077
-0.248337
-0.274889
-0.250088
3.78826
0.890561
1.57543
-0.244703
0.202334
0.299977
0.24857
-0.0340738
0.177038
0.10621
-0.322882
-0.358553
-0.0525415
-0.113319
-0.0748186
-0.12782
-0.145069
-0.274737
-0.322765
-0.237874
-0.160591
-0.167274
-0.174204
-0.283504
-0.275679
-0.217179
3.80862
1.05488
1.48749
0.0172774
0.261048
0.355293
0.278148
0.00642961
0.0871954
0.0892834
-0.302777
-0.36324
-0.0952654
-0.14042
-0.101671
-0.169042
-0.129405
-0.270243
-0.329144
-0.259608
-0.18279
-0.17469
-0.15453
-0.396166
-0.299319
-0.179682
4.15387
0.989854
1.31852
-0.481372
0.0959754
0.188437
0.0955697
-0.0794546
0.226082
0.0707813
-0.383315
-0.324833
-0.0261443
-0.0532923
-0.0731846
-0.0976379
-0.174507
-0.296998
-0.357953
-0.233452
-0.1573
-0.188046
-0.190123
-0.27063
-0.281522
-0.255402
0.0722657
-0.423763
-1.07301
-0.0908185
-0.451863
0.0992462
0.0569735
0.176232
0.199168
0.00368287
-0.0340516
0.0196122
0.132976
-0.0162521
-0.000986686
0.0279108
0.0783357
0.0853975
-0.0162382
0.110621
0.0783596
0.0909802
0.0242304
0.0728517
0.0642835
0.0535765
1.13594
-0.820727
-0.435991
-0.641894
0.109185
0.137609
0.179836
0.0605301
-0.0562971
-0.0779376
0.0533476
0.0405675
0.0993375
0.115965
0.085711
-0.0144556
0.0437869
0.062051
0.0646591
0.0946323
0.0603166
0.059073
0.0198031
0.0422035
0.0364251
0.0474248
0.110403
-0.667612
-0.411814
0.0205943
0.321428
0.0657928
0.265873
0.322601
0.0777458
0.0823498
0.216493
0.0869626
0.159023
0.202501
0.0487587
0.0440239
0.0646034
0.163668
0.17106
0.153959
0.140949
0.1381
0.116122
0.163654
0.107769
0.145633
-2.18468
1.05302
-1.04527
-0.710514
-0.0680515
-0.355592
-0.64768
0.119675
-0.157885
-0.0546403
0.129811
0.0363546
-0.155638
-0.157919
-0.109807
-0.0943445
-0.0762679
-0.180191
-0.0377994
-0.163531
-0.118557
-0.0636342
-0.228387
-0.156797
-0.139375
-0.201493
0.656465
-0.602144
-0.636101
-0.273737
0.33434
-0.143467
0.192378
0.258491
0.130446
0.0940699
0.137114
0.0977413
0.117128
0.129497
0.0966052
0.0753105
0.104118
0.127534
0.0935072
0.161304
0.130023
0.147139
0.0737663
0.135898
0.084552
0.0922687
2.32324
0.573689
-1.15298
-0.108179
0.155392
-0.269791
-0.342165
-0.0520867
-0.139317
-0.311114
-0.221471
-0.22099
-0.197129
-0.0285988
-0.191168
-0.193699
-0.137134
-0.199958
-0.250828
-0.185489
-0.167734
-0.13643
-0.157143
-0.228032
-0.199552
-0.234714
0.766236
-0.617517
-0.22997
-0.227516
0.702445
-0.256367
0.268039
0.250101
0.0912976
0.145999
0.229665
0.157497
0.12339
0.167403
0.132363
0.110767
0.117101
0.18623
0.144736
0.163738
0.153727
0.138128
0.0952132
0.151223
0.107925
0.135627
0.683493
-0.612212
-0.58536
-0.280087
0.389272
-0.175969
0.195003
0.245881
0.111342
0.0965417
0.14864
0.102517
0.110583
0.128849
0.0970499
0.0743801
0.100514
0.129735
0.0964262
0.155751
0.12416
0.138605
0.0685332
0.131338
0.0807304
0.0921106
0.909922
-0.623742
-0.276344
-0.366123
0.658223
-0.400709
0.198743
0.131177
0.0385968
0.100263
0.152464
0.113484
0.0420298
0.0815982
0.093548
0.0667875
0.0807172
0.117621
0.0763728
0.10957
0.0885468
0.0763636
0.0223112
0.0835224
0.0466548
0.0635339
1.00684
-0.615065
-0.234213
-0.406721
0.653409
-0.382756
0.225255
0.13877
0.0606711
0.110086
0.151777
0.12196
0.0586925
0.0859275
0.113758
0.0970159
0.10137
0.127785
0.074371
0.120717
0.112376
0.0881942
0.034291
0.0957797
0.0571594
0.0695773
0.980017
-0.753146
-0.558129
-0.608023
-0.175967
0.410259
0.204347
0.0533981
0.0382261
-0.182164
-0.0815619
-0.0547719
0.0279512
0.066183
0.0222793
-0.0601657
0.0662503
-0.0697903
0.0269352
0.076714
0.0326477
0.0427541
0.0155527
0.0441615
0.0148457
0.0117881
0.977641
-0.881053
-0.298334
-0.602569
0.20774
0.388558
0.323365
0.101521
-0.0136719
-0.188935
0.0874586
0.0348972
0.0680231
0.16917
0.101094
-0.0108621
0.110104
0.00134222
0.117579
0.102672
0.0838038
0.0386602
0.0702951
0.105272
0.0669024
0.10833
0.833343
-0.94224
-0.170367
-0.604235
0.0448755
0.471489
0.42131
0.0393904
-0.0676218
-0.234254
-0.0259861
-0.0246321
0.0216102
0.0705497
-0.0135314
-0.00507638
0.0808342
-0.0671831
0.033605
0.0609755
0.0147623
0.00522598
-0.00267216
0.0630333
0.00139853
0.0427069
-1.27269
1.15126
-1.09729
-1.39679
-0.820296
0.351426
-0.705729
-0.08725
-0.0576944
-0.289649
-0.385205
-0.00168326
-0.172434
-0.261125
-0.146207
-0.156475
-0.0345255
-0.344245
-0.172213
-0.163596
-0.137326
-0.0522467
-0.246678
-0.256115
-0.163066
-0.294346
0.466325
-0.706607
-0.716756
-0.35353
-0.280446
0.451275
0.229303
0.140194
0.111419
-0.150945
-0.0200879
-0.0699222
0.0686167
0.0691642
0.0240428
-0.0530646
0.0710152
-0.009113
0.0487282
0.107241
0.0500571
0.074249
0.0361318
0.0568778
0.0509892
0.0582458
0.977641
-0.881053
-0.298334
-0.602569
0.20774
0.388558
0.323365
0.101521
-0.0136719
-0.188935
0.0874586
0.0348972
0.0680231
0.16917
0.101094
-0.0108621
0.110104
0.00134222
0.117579
0.102672
0.0838038
0.0386602
0.0702951
0.105272
0.0669024
0.10833
1.32283
0.695305
-1.51793
0.233394
-0.481251
0.167689
-0.298384
-0.0564197
-0.0160712
-0.397124
-0.230308
-0.228168
-0.165305
-0.149481
-0.158485
-0.195412
-0.103565
-0.165387
-0.243206
-0.111458
-0.1282
-0.0352116
-0.133067
-0.175495
-0.12246
-0.196363
-0.191316
-0.799341
0.14248
0.0387123
0.236424
0.401766
0.52351
0.137934
0.0357916
-0.163178
0.142993
-0.00696588
0.0434427
0.123852
-0.0525739
-0.0127939
0.0479785
0.0248171
0.136392
0.0775367
0.0468695
0.0193881
0.05257
0.122095
0.0511597
0.116068
1.42535
-0.867344
-0.00405648
-0.92213
-0.0801773
0.470993
0.306334
-0.153781
-0.12082
-0.280096
-0.228889
-0.0154381
-0.0249651
0.0386497
-0.0242808
-0.0298492
0.053411
-0.12514
-0.0318227
0.0243844
-0.0144775
-0.0175691
-0.0246525
-0.0183512
-0.0369942
-0.0275803
-0.42267
-0.550853
0.359422
0.395216
0.847421
-0.222776
0.218057
0.254546
0.133657
0.114272
0.137905
0.135715
0.0265703
0.150791
0.0619188
-0.0273269
-0.0167472
0.155271
0.196789
0.0768254
0.119028
0.0755539
0.13161
0.111593
0.0907016
0.120375
-0.356596
-0.426119
-0.624228
0.145492
-0.511293
0.394222
0.260845
0.0989069
0.217063
-0.0814739
0.0685518
-0.049137
0.080277
0.00176918
0.00505217
-0.0327179
0.0661215
0.0409837
0.0385045
0.114329
0.0117966
0.0960432
0.0168236
0.0859793
0.0591582
0.0835073
0.464527
-0.956449
0.402172
-0.1785
0.617494
0.250396
0.494231
0.220527
-0.124905
-0.0161091
0.217965
0.117124
0.163321
0.219804
0.0324541
0.0631129
0.0484973
0.180545
0.214389
0.091417
0.148041
0.0460918
0.103192
0.148659
0.0829124
0.175141
-0.484882
-0.819165
0.164184
0.316622
0.302308
0.426489
0.432022
0.275995
-0.0455834
-0.0269444
0.159063
0.0310101
0.107158
0.222697
-0.0853298
-0.0460321
0.0175464
0.100056
0.257172
0.0935297
0.113834
0.0478458
0.127538
0.144725
0.096045
0.159242
1.35602
-1.08363
0.506181
-0.922402
0.241744
0.333265
0.45985
-0.208505
-0.296329
-0.240269
0.0282334
0.128275
0.0713048
0.10731
0.0738298
0.00843594
0.00154792
0.0437099
-0.00569855
0.0260352
0.0186907
-0.0197756
-0.0364858
0.0504102
-0.00426236
0.0489447
-2.04581
0.526089
-0.199723
-0.776115
0.241189
0.0706828
-0.262992
0.0973847
-0.295737
-0.25161
0.0413201
0.0664889
-0.15878
-0.0713518
-0.190647
-0.116722
-0.114375
-0.18704
0.0529502
-0.190074
-0.103337
-0.133934
-0.181405
-0.134631
-0.153681
-0.165199
1.43707
-1.05622
0.502993
-0.967315
0.200061
0.362874
0.446907
-0.221904
-0.290757
-0.235725
-0.0157764
0.1547
0.0713759
0.120734
0.0868081
0.0178193
0.016405
0.0303655
-0.00586056
0.0401318
0.0276579
-0.0027902
-0.0223171
0.0627728
0.0049038
0.0456732
1.43707
-1.05622
0.502993
-0.967315
0.200061
0.362874
0.446907
-0.221904
-0.290757
-0.235725
-0.0157764
0.1547
0.0713759
0.120734
0.0868081
0.0178193
0.016405
0.0303655
-0.00586056
0.0401318
0.0276579
-0.0027902
-0.0223171
0.0627728
0.0049038
0.0456732
1.9403
0.0199105
-0.326137
-0.139325
0.456151
-0.102116
-0.0464139
-0.135457
-0.380634
-0.36721
-0.0687281
-0.174815
-0.168562
-0.00135095
-0.195312
-0.17339
-0.166745
-0.0998507
-0.125012
-0.196837
-0.149579
-0.17876
-0.164992
-0.172801
-0.176261
-0.152053
1.52287
-0.922636
0.316373
-0.88132
0.360435
0.172793
0.372118
-0.0914555
-0.178996
-0.0988418
0.130335
0.188692
0.14035
0.184441
0.169179
0.0644468
0.0613953
0.113172
0.0605527
0.114901
0.110236
0.065688
0.0427759
0.1119
0.0643583
0.100998
1.76939
-0.924487
0.565457
-1.0573
0.229401
0.252462
0.357087
-0.257806
-0.230175
-0.163409
-0.0162887
0.176055
0.0784237
0.121969
0.150638
0.0168487
0.029982
0.0317569
-0.0137354
0.0657222
0.0703362
0.0236714
0.0035385
0.0767154
0.0273351
0.0360886
1.78179
-0.978288
0.647646
-1.09608
0.0748071
0.404487
0.420573
-0.351732
-0.262194
-0.267459
-0.091019
0.100988
0.0262268
0.0580323
0.0971802
-0.0129533
0.018301
-0.0258215
-0.0478644
0.0198664
-0.00304931
-0.0181449
-0.0454488
0.0218477
-0.0106882
0.0027759
1.86148
-0.831551
0.924201
-1.03312
0.270194
0.165858
0.348024
-0.353802
-0.205544
-0.143936
-0.0838714
0.112533
0.0174916
0.0292958
0.128872
-0.0199185
-0.00114259
-0.00295132
-0.0783943
0.0150227
0.0442177
-0.00609501
-0.0277969
0.0481353
0.00296917
-0.0163837
-1.38953
0.0763561
-0.778084
0.495487
-0.829336
0.209697
-0.106412
0.0773927
0.0814319
0.0198793
0.220692
-0.0160987
0.129148
0.0102273
0.0818358
0.0676589
0.0332957
0.0679766
0.0827669
0.109711
-0.020132
0.0464957
0.0420349
0.0531157
0.0467079
0.0847825
-1.06233
-0.280109
-0.419757
0.57265
-0.0817921
0.0643238
0.0925084
0.216227
0.092706
0.0603425
0.276571
-0.00137436
0.0761567
0.172103
0.029166
-0.042097
-0.014157
0.0946126
0.193448
0.125948
0.03866
0.0952174
0.10409
0.0942261
0.0626681
0.0984941
-0.181703
-0.454186
-0.974826
-0.0088756
-0.586154
0.403361
0.0962554
0.100713
0.242435
-0.168738
0.0479877
-0.0483378
0.0820038
0.0539656
0.0573368
-0.0598586
0.0487155
0.0324366
0.0639227
0.109288
0.0137251
0.0785835
0.0476362
0.0376094
0.0657111
0.0624652
-2.40021
0.918945
-1.02633
-0.372548
-0.71735
0.172701
-0.516374
0.10137
-0.108143
-0.118018
0.142702
0.00414102
-0.0151492
-0.151298
-0.0907697
-0.0774916
-0.03762
-0.109281
0.00429664
-0.0767405
-0.114604
-0.0366215
-0.159691
-0.124658
-0.0809969
-0.11335
-0.274443
-0.322496
-1.02036
0.0960927
-0.63013
0.332976
0.0648649
0.119804
0.296926
-0.0967538
0.0579015
-0.0218043
0.10639
0.0399237
0.0723004
-0.0205942
0.0701997
0.0676209
0.0605406
0.131227
0.033499
0.104933
0.0597092
0.0531344
0.0845869
0.0756887
0.228693
-0.477239
-0.998948
-0.205062
-0.571344
0.448489
0.0897473
0.0831115
0.258032
-0.180412
-0.04074
-0.0440521
0.0829748
0.056094
0.0590188
-0.0509517
0.0728304
0.0184366
0.0542037
0.113776
0.0415423
0.0819107
0.0563454
0.0291302
0.0777503
0.0551169
-0.847251
0.459494
-1.11501
0.669324
-0.763077
-0.0444645
-0.216328
0.0324092
0.0701701
0.000987625
0.174012
-0.0273933
0.0501655
-0.0889836
0.0530569
0.0496628
-0.00964237
0.0462628
-0.00733045
0.0929581
-0.0401867
0.0640602
-0.0347115
-0.00060029
-0.0100225
0.0233242
-0.183594
-0.437737
-0.961396
0.0285932
-0.550635
0.395484
0.109284
0.128505
0.257377
-0.138459
0.0765401
-0.0337736
0.0984887
0.0696192
0.0729414
-0.0472902
0.0611994
0.0519719
0.0794678
0.1246
0.0291055
0.0978911
0.0618801
0.055595
0.0793406
0.0783155
-0.132533
-0.417774
-0.971469
0.00466489
-0.593782
0.431899
0.106673
0.117748
0.275771
-0.144971
0.0543998
-0.0276912
0.105246
0.0681965
0.0782349
-0.0365482
0.0732163
0.0540507
0.0785882
0.13056
0.0381419
0.101087
0.0698556
0.0558749
0.0891236
0.0826897
-0.181588
-0.292103
-0.958664
0.069899
-0.65018
0.346707
0.166962
0.0712067
0.34628
-0.109851
-8.06808e-005
-0.00168548
0.105676
-0.00473663
0.0423258
0.034108
0.126607
0.0709487
0.0584183
0.148369
0.0484628
0.0961547
0.0469966
0.070979
0.109495
0.087643
-0.0475297
-0.363033
-1.04466
-0.0221599
-0.425482
0.230736
0.0466556
0.115193
0.277536
-0.100876
0.0620007
-0.00219216
0.0636129
0.0753248
0.09317
-0.0437486
0.0681437
0.0384852
0.0757881
0.129788
0.0263849
0.109931
0.06171
0.0486763
0.07635
0.0592995
-1.77514
0.130711
-1.14813
0.424864
-0.795525
-0.686052
-0.540632
-0.121797
-0.125746
0.0125186
-0.108106
-0.0792904
-0.124178
-0.262971
-0.179576
-0.0699019
-0.137745
-0.126813
-0.186314
-0.116282
-0.158049
-0.175961
-0.143207
-0.124297
-0.149693
-0.15586
-1.53073
-0.0531737
-0.780071
0.495627
-0.407345
-0.643017
-0.268844
-0.0775882
-0.036682
0.0264661
-0.0943505
-0.0390336
-0.134752
-0.175776
-0.1953
-0.0715094
-0.116113
-0.0656611
-0.101757
-0.0590784
-0.110458
-0.112477
-0.0983468
-0.0757774
-0.102894
-0.116302
-1.67513
-0.0931489
-0.406443
0.548695
-0.0657285
-0.721817
-0.27059
-0.0901869
-0.134216
0.0412635
-0.107669
-0.0629511
-0.232845
-0.125891
-0.209674
-0.130614
-0.188286
-0.108493
-0.0781263
-0.0934023
-0.138878
-0.129306
-0.095374
-0.099393
-0.136833
-0.163698
-2.65456
1.07398
-1.36095
-0.577001
-0.45795
-0.618906
-0.803448
-0.0360447
-0.211733
-0.153155
-0.0861802
-0.0767019
-0.279984
-0.364444
-0.316065
-0.242192
-0.200791
-0.273814
-0.199557
-0.242397
-0.25961
-0.195583
-0.355325
-0.304011
-0.276763
-0.357532
-0.9748
-0.247385
-1.03368
0.219607
-0.446474
-0.55856
-0.181207
-0.0716864
0.0519941
-0.070691
-0.114305
-0.0774485
-0.130242
-0.204989
-0.181718
-0.104521
-0.103741
-0.0710244
-0.147759
-0.0573477
-0.122811
-0.099957
-0.141952
-0.0928614
-0.118307
-0.135586
-1.9838
0.0958577
-0.466925
0.653735
-0.320639
-0.70434
-0.386566
-0.112922
-0.172277
0.0934113
-0.11988
-0.0401186
-0.191341
-0.16861
-0.201833
-0.0732266
-0.153097
-0.101865
-0.0811282
-0.0962682
-0.131758
-0.148507
-0.0870574
-0.08998
-0.114845
-0.13701
-1.84465
0.263796
-1.28951
0.585445
-0.782885
-0.809064
-0.630616
-0.211447
-0.239009
-0.0807125
-0.176015
-0.133177
-0.208916
-0.334761
-0.295392
-0.118129
-0.223603
-0.176441
-0.233663
-0.169728
-0.212909
-0.226757
-0.218843
-0.19853
-0.210405
-0.208513
-2.32078
0.494861
-0.636454
0.69398
-0.747553
-0.565636
-0.56644
-0.0939809
-0.175237
0.196561
-0.129395
0.0158504
-0.0303991
-0.244308
-0.115851
0.0861356
-0.027916
-0.0501967
-0.0453117
-0.0949493
-0.0557329
-0.140581
-0.0709588
-0.0433197
-0.0133675
-0.0340451
-1.07029
-0.154904
-1.05974
0.267956
-0.568916
-0.531354
-0.220001
-0.0812161
0.0558321
-0.0490049
-0.116362
-0.0588713
-0.0998387
-0.217361
-0.158136
-0.0738777
-0.0829735
-0.0544528
-0.147846
-0.0491151
-0.114249
-0.0940603
-0.130602
-0.0849359
-0.101946
-0.119398
-1.89335
-0.0189123
-0.417216
0.637759
-0.334157
-0.514513
-0.294586
-0.062131
-0.152309
0.0491032
-0.0700285
-0.0120049
-0.125127
-0.100507
-0.174387
-0.059111
-0.13355
-0.0577632
-0.0334802
-0.0525878
-0.0945563
-0.122259
-0.0348185
-0.0561301
-0.0662887
-0.0937412
-0.969161
-0.167371
-1.08343
0.24082
-0.572125
-0.504807
-0.205706
-0.0724943
0.078714
-0.0459371
-0.116005
-0.0527797
-0.0876575
-0.213851
-0.145216
-0.0724418
-0.0687651
-0.0456146
-0.148038
-0.0399943
-0.103922
-0.0808636
-0.125876
-0.0766822
-0.0914848
-0.109991
-1.4985
-0.0182742
0.737297
0.692554
-0.287052
0.349942
0.174956
-0.0607537
-0.139735
0.0863016
0.266908
-0.0412123
0.0469805
0.0316611
0.027703
0.0815419
0.0136418
0.0573826
0.150621
0.0601205
-0.0253561
0.00266723
0.0773416
0.0517532
0.0588285
0.101354
-1.63328
0.0434841
0.885442
0.686977
-0.0750462
0.095078
0.120913
-0.119096
-0.164858
0.0999993
0.130323
-0.0682184
-0.0663991
-0.0543889
-0.0384666
0.0428666
-0.0284043
0.00807042
0.102366
0.00876543
-0.0690136
-0.043272
0.0253391
-0.0115762
0.0142534
0.022246
-0.877524
-0.254883
0.50808
0.39202
0.0646172
0.0820931
0.450274
-0.134662
0.157759
-0.120309
0.130921
-0.0162266
-0.0546064
-0.12126
-0.0294693
0.0909081
0.060215
0.0615625
-0.00335704
0.0388888
-0.0647855
-0.00898929
0.000711872
0.0228801
0.0493524
0.0564938
-2.63685
0.901886
0.986865
-0.0936504
0.17436
0.105766
-0.246981
-0.0853213
-0.33395
0.0311843
-0.0976473
-0.0607829
-0.26132
-0.283844
-0.06366
-0.0864159
-0.0875335
-0.117077
-0.0281735
-0.214303
-0.18739
-0.0923195
-0.175781
-0.147367
-0.0807774
-0.12973
-1.59799
0.238044
1.48048
0.297832
0.278921
0.124665
0.0775278
-0.149433
-0.324427
0.158664
-0.0892234
-0.106857
-0.209493
-0.184702
0.0895917
-0.00864419
-0.092196
-0.0111141
-0.0434719
-0.154203
-0.132511
-0.0152958
-0.0826842
-0.0188747
-0.0348186
-0.00355827
-1.59799
0.238044
1.48048
0.297832
0.278921
0.124665
0.0775278
-0.149433
-0.324427
0.158664
-0.0892234
-0.106857
-0.209493
-0.184702
0.0895917
-0.00864419
-0.092196
-0.0111141
-0.0434719
-0.154203
-0.132511
-0.0152958
-0.0826842
-0.0188747
-0.0348186
-0.00355827
-1.24979
0.108251
0.950361
0.708205
-0.0676984
0.0769083
0.0746725
-0.0724021
-0.206959
0.254832
0.221743
0.00302481
0.0318978
0.0251339
0.0457343
0.0893545
0.00266767
0.0949961
0.156615
0.0653336
0.0088321
0.0270446
0.0803911
0.0580076
0.061555
0.0720979
-0.617171
-0.412234
0.057548
0.187897
-0.237163
0.333905
0.428056
-0.072646
0.1988
-0.217457
0.0508136
-0.0691397
-0.0350434
-0.137848
-0.0106605
0.0237933
0.0623151
0.0381156
-0.0721591
0.0249765
-0.0705545
0.0146161
-0.013426
0.0300717
0.0413511
0.035965
-0.474552
-0.438996
0.024196
0.0995021
-0.181635
0.319887
0.435461
-0.0717649
0.200381
-0.228203
0.02546
-0.0744608
-0.045169
-0.142553
-0.0131292
0.0180839
0.0671136
0.0314889
-0.0765642
0.0223149
-0.0666867
0.014506
-0.0228915
0.0259495
0.0408124
0.0256358
-1.15724
-0.0907041
0.231641
0.446703
-0.167042
0.00982469
0.256263
-0.132276
0.107825
-0.0728336
0.146007
-0.0251907
-0.0379197
-0.123441
-0.0534803
0.0860668
0.0315743
0.0316546
-0.00874884
0.033266
-0.0748854
-0.026313
-0.00942859
-0.00392029
0.0232609
0.0361388
-1.27118
-0.136435
0.270847
0.461871
-0.425691
0.271031
0.256928
-0.12319
0.0491874
-0.125956
0.151877
-0.0690381
-0.00278978
-0.133407
-0.0481564
0.0598969
0.0190813
0.0125875
-0.0163699
0.0113227
-0.0898181
-0.0434787
-0.0076097
-0.00586249
0.0115036
0.0458269
0.393567
-0.519331
0.613485
0.0906383
1.26768
-0.678126
0.33839
0.184176
0.125353
0.262416
0.113585
0.193512
0.0232052
0.045453
0.0647157
0.155066
0.0767848
0.240054
0.144628
0.093715
0.166886
0.0794893
0.091818
0.107881
0.107826
0.108847
-0.394433
-0.351056
0.53554
0.519113
1.20102
-0.502455
0.266758
0.30595
0.245609
0.293892
0.0338201
0.292772
0.0111246
0.146816
0.129736
0.109395
0.0992322
0.23706
0.221783
0.162594
0.186057
0.166203
0.191961
0.188337
0.176417
0.164952
-0.5081
-0.313481
0.580368
0.56126
1.18335
-0.492416
0.260124
0.292919
0.24803
0.292911
0.00535201
0.292767
-0.00718902
0.138061
0.143862
0.101
0.0963952
0.233307
0.209849
0.160585
0.171137
0.175752
0.191852
0.189829
0.176195
0.160637
-1.46102
0.446829
0.202881
-0.121278
0.861128
-0.775527
-0.247816
0.0260402
-0.0257357
0.0832002
0.02979
0.0578222
-0.210222
-0.153617
0.0305239
0.0231435
-0.0995291
-0.0342611
0.0139867
-0.152679
-0.0618255
-0.0953088
-0.11774
-0.116784
-0.0809892
-0.103848
-0.319862
-0.318143
0.686007
0.498958
1.28572
-0.55324
0.319254
0.278011
0.270439
0.310791
0.00535473
0.304401
-0.00584194
0.119911
0.148979
0.141273
0.125024
0.248055
0.206205
0.167694
0.190795
0.176743
0.192459
0.1977
0.188529
0.169841
-0.682644
-0.231036
0.547848
0.613206
1.131
-0.546637
0.227558
0.257705
0.261
0.280242
-0.0143095
0.279757
-0.0379445
0.111819
0.141419
0.0954763
0.0852942
0.213565
0.184796
0.147045
0.146051
0.166531
0.178782
0.176421
0.161831
0.137093
1.94803
0.249182
-0.108807
-0.173349
0.926825
-0.766295
-0.173668
-0.107896
-0.0318516
-0.170114
-0.183851
-0.125639
-0.247123
-0.137323
-0.117381
-0.0981846
-0.154186
-0.0946624
-0.183418
-0.201853
-0.114682
-0.187819
-0.178591
-0.206045
-0.166597
-0.180217
-0.339013
-0.366269
0.514127
0.49561
1.20823
-0.503486
0.272229
0.314179
0.244355
0.293725
0.0517506
0.29619
0.0233984
0.156015
0.12764
0.118204
0.103335
0.241431
0.230393
0.167084
0.196122
0.164345
0.195278
0.190249
0.17895
0.169856
-0.273317
-0.343604
0.495683
0.455861
1.22854
-0.596208
0.273649
0.28545
0.253216
0.295407
0.0405113
0.285782
0.00453755
0.129205
0.109571
0.128055
0.108498
0.227351
0.217568
0.157906
0.197608
0.14439
0.177209
0.180112
0.167185
0.153249
-0.186171
-0.4114
0.473253
0.400306
1.2106
-0.547803
0.273347
0.299607
0.214245
0.283301
0.0621083
0.272364
0.0237127
0.138603
0.099821
0.121072
0.094908
0.229315
0.216537
0.150806
0.195487
0.136403
0.172518
0.172508
0.158803
0.153603
-0.423544
-0.301398
0.758802
0.497067
1.26736
-0.570025
0.318018
0.231186
0.251989
0.287448
-0.0570841
0.286211
-0.0510124
0.0788847
0.144635
0.123932
0.107315
0.225449
0.158457
0.142836
0.1522
0.167556
0.168108
0.179287
0.167659
0.142819
3.27015
0.00189842
0.859798
-1.15816
0.238383
-0.240418
-0.139172
-0.461066
0.156384
-0.129783
-0.166411
-0.181481
-0.00957116
-0.0348584
0.0529661
-0.0827024
-0.10416
-0.0995521
-0.204334
-0.105579
-0.0368869
-0.0741761
-0.110934
-0.111077
-0.104577
-0.153377
3.25873
-0.0545802
0.584573
-1.28759
0.192416
-0.310072
-0.220724
-0.477655
0.133367
-0.180638
-0.20977
-0.172491
-0.0268906
-0.0323061
0.0352833
-0.0967246
-0.115849
-0.122859
-0.214051
-0.114579
-0.0495387
-0.0954902
-0.121749
-0.148247
-0.130177
-0.167467
3.21313
-0.0827668
0.785945
-1.23561
0.235184
-0.255889
-0.15011
-0.479701
0.135608
-0.155992
-0.149003
-0.182939
-0.0224304
-0.0460566
0.0642201
-0.0958883
-0.0941207
-0.103807
-0.204352
-0.104118
-0.0274602
-0.076736
-0.101502
-0.11761
-0.105852
-0.150589
0.463535
1.19742
-0.383182
-1.07434
-0.259668
-0.434953
-0.911935
-0.381971
0.0611367
-0.149215
-0.210993
-0.201996
-0.212574
-0.155808
0.0419246
-0.119568
-0.128786
-0.328602
-0.225
-0.273905
-0.152852
-0.153099
-0.217023
-0.245276
-0.189126
-0.25998
2.99695
-0.234315
0.380063
-1.34179
0.208727
-0.298936
-0.209648
-0.458638
0.0733983
-0.211411
-0.215891
-0.111483
-0.028106
-0.0140654
0.0420911
-0.0949029
-0.0909651
-0.108174
-0.182989
-0.0931022
-0.0284444
-0.0897849
-0.0975214
-0.143746
-0.118443
-0.140442
2.99695
-0.234315
0.380063
-1.34179
0.208727
-0.298936
-0.209648
-0.458638
0.0733983
-0.211411
-0.215891
-0.111483
-0.028106
-0.0140654
0.0420911
-0.0949029
-0.0909651
-0.108174
-0.182989
-0.0931022
-0.0284444
-0.0897849
-0.0975214
-0.143746
-0.118443
-0.140442
4.20286
0.810655
0.213804
-0.752941
0.250183
-0.234895
-0.359757
-0.562125
-0.155678
-0.462472
-0.308782
-0.327914
-0.222855
-0.163606
-0.116451
-0.231951
-0.255903
-0.241527
-0.413235
-0.309957
-0.214445
-0.238624
-0.264836
-0.349293
-0.264383
-0.344424
3.14322
-0.0716978
0.758257
-1.1624
0.34272
-0.384663
-0.14357
-0.493426
0.148145
-0.138905
-0.0600921
-0.224491
-0.0571081
-0.0910322
0.0702337
-0.101269
-0.076699
-0.0868863
-0.206006
-0.109673
-0.0373753
-0.0802457
-0.11039
-0.132322
-0.0950628
-0.157739
2.77668
-0.372004
0.310756
-1.32834
0.247132
-0.301521
-0.153491
-0.452104
0.0361532
-0.217921
-0.163548
-0.094496
-0.0425003
-0.0315335
0.0530865
-0.095207
-0.0656113
-0.0955886
-0.164469
-0.0790363
-0.0182298
-0.0841965
-0.0875728
-0.138779
-0.10271
-0.125697
2.96535
-0.227945
0.842675
-1.20183
0.307081
-0.291545
-0.0726279
-0.512707
0.0979606
-0.156912
-0.0598628
-0.212737
-0.0646149
-0.111051
0.0740972
-0.115244
-0.0644535
-0.0943892
-0.207604
-0.101326
-0.0228498
-0.0771344
-0.0992635
-0.123532
-0.0914406
-0.14831
2.99917
-0.219481
0.623177
-1.2774
0.281139
-0.339709
-0.141783
-0.501725
0.0922315
-0.181641
-0.13551
-0.161851
-0.0526169
-0.0771779
0.0552062
-0.103163
-0.0804314
-0.0975401
-0.204735
-0.103155
-0.029443
-0.0885778
-0.1063
-0.143879
-0.107564
-0.15184
0.57531
-0.487713
-0.943713
-0.327282
-0.028566
0.00701866
0.0485758
0.212657
0.0587804
0.0365785
0.115738
-0.00506472
0.0804039
0.106376
0.0486685
-0.0286682
0.0767651
0.0378373
0.0134804
0.11126
0.0991789
0.11882
0.0514297
0.0999699
0.0391109
0.0353413
-0.00569684
-0.447408
-0.666839
-0.0321817
-1.14855
0.839155
0.119539
0.15058
0.076108
-0.036384
-0.226396
-0.0908075
0.284851
-0.101836
-0.0929195
0.0177457
0.0851792
0.0620334
-0.103665
0.0293355
0.115014
0.043387
0.0265683
0.0569663
0.0716171
0.111007
0.0846679
-0.489488
-0.550882
0.143027
0.100188
0.305972
0.243062
0.445185
0.154761
0.183221
0.357997
0.102697
0.254745
0.289922
0.153162
0.0713841
0.144198
0.204712
0.173075
0.22764
0.229765
0.261713
0.2216
0.258037
0.169901
0.21985
-1.76903
1.36096
-1.24149
-0.963968
-0.318587
-0.257857
-0.889335
-0.0280715
-0.259107
-0.127345
0.0495466
-0.0171331
-0.200419
-0.21149
-0.0320292
-0.118444
-0.0324333
-0.289303
-0.149123
-0.231618
-0.132091
-0.0998272
-0.250625
-0.205667
-0.141661
-0.239389
0.668697
-0.494804
-0.643748
-0.363663
-1.00592
0.794629
0.0747764
0.108996
0.0668129
-0.0605615
-0.303756
-0.0677606
0.265282
-0.0290105
-0.0573536
-0.00750986
0.0660978
0.0688003
-0.103517
0.0508822
0.129512
0.0473667
0.0410147
0.0144058
0.0492665
0.0821607
1.02461
-0.760208
-0.398384
-0.50774
0.133944
0.319068
0.219935
0.207172
-0.0353883
0.0166671
0.189365
0.0618911
0.170159
0.248429
0.158643
0.00766981
0.103646
0.109994
0.110695
0.162654
0.157039
0.164846
0.13141
0.151706
0.0961454
0.13277
2.53906
0.80996
-1.04337
0.0678521
0.283794
-0.166939
-0.39285
-0.00259577
-0.173846
-0.345766
-0.20616
-0.28066
-0.2225
-0.00464613
-0.195699
-0.248726
-0.178541
-0.216501
-0.291357
-0.242015
-0.175201
-0.154541
-0.140084
-0.254745
-0.220531
-0.246886
-0.0139993
-0.488319
-0.503333
0.188021
0.116768
0.301233
0.247043
0.435909
0.143576
0.178812
0.359745
0.0975267
0.245018
0.293775
0.139329
0.0631907
0.133503
0.203253
0.182155
0.221323
0.224726
0.24995
0.220673
0.253495
0.168987
0.219334
0.725233
-0.489483
-0.603974
-0.393366
-1.01022
0.795253
0.0725544
0.0897204
0.0564945
-0.0655269
-0.334376
-0.0643499
0.259367
-0.0282793
-0.0649042
-0.0095328
0.0577576
0.0624334
-0.113838
0.0454599
0.12306
0.0392957
0.0345691
0.00364213
0.0416465
0.073652
0.678956
-0.459564
-0.722041
-0.38255
-1.02203
0.719895
0.031114
0.0772702
0.0760342
-0.0758872
-0.335594
-0.0885934
0.234069
-0.0591963
-0.0793957
-0.0206209
0.0531704
0.0445567
-0.134169
0.0294338
0.107472
0.0232419
0.0174015
-0.00631452
0.03363
0.0521162
-0.32544
-0.28457
-0.352317
0.426163
0.334635
0.0127383
0.188603
0.4437
0.209903
0.276622
0.364587
0.169762
0.206223
0.287621
0.135759
0.0974626
0.130981
0.214959
0.216232
0.233526
0.240007
0.256052
0.247156
0.254878
0.17765
0.212148
